digraph Tree {
node [shape=box, style="filled, rounded", color="black", fontname="helvetica"] ;
edge [fontname="helvetica"] ;
0 [label="genreEncoded <= 2.5\nentropy = 1.0\nsamples = 635\nvalue = [494.0, 493.5]\nclass = No", fillcolor="#ffffff"] ;
1 [label="genreEncoded <= 1.5\nentropy = 0.574\nsamples = 232\nvalue = [222, 35]\nclass = No", fillcolor="#e99558"] ;
0 -> 1 [labeldistance=2.5, labelangle=45, headlabel="True"] ;
2 [label="moodEncoded <= 5.5\nentropy = 0.765\nsamples = 119\nvalue = [110.0, 31.5]\nclass = No", fillcolor="#eca572"] ;
1 -> 2 ;
3 [label="moodEncoded <= 2.5\nentropy = 0.63\nsamples = 98\nvalue = [93.0, 17.5]\nclass = No", fillcolor="#ea995e"] ;
2 -> 3 ;
4 [label="entropy = 0.989\nsamples = 11\nvalue = [9, 7]\nclass = No", fillcolor="#f9e3d3"] ;
3 -> 4 ;
5 [label="edadEncoded <= 2.5\nentropy = 0.503\nsamples = 87\nvalue = [84.0, 10.5]\nclass = No", fillcolor="#e89152"] ;
3 -> 5 ;
6 [label="moodEncoded <= 3.5\nentropy = 0.714\nsamples = 46\nvalue = [43.0, 10.5]\nclass = No", fillcolor="#eba069"] ;
5 -> 6 ;
7 [label="entropy = 0.0\nsamples = 13\nvalue = [13, 0]\nclass = No", fillcolor="#e58139"] ;
6 -> 7 ;
8 [label="edadEncoded <= 1.5\nentropy = 0.826\nsamples = 33\nvalue = [30.0, 10.5]\nclass = No", fillcolor="#eead7e"] ;
6 -> 8 ;
9 [label="entropy = 0.659\nsamples = 18\nvalue = [17.0, 3.5]\nclass = No", fillcolor="#ea9b62"] ;
8 -> 9 ;
10 [label="entropy = 0.934\nsamples = 15\nvalue = [13, 7]\nclass = No", fillcolor="#f3c5a4"] ;
8 -> 10 ;
11 [label="entropy = 0.0\nsamples = 41\nvalue = [41, 0]\nclass = No", fillcolor="#e58139"] ;
5 -> 11 ;
12 [label="durationEncoded <= 2.5\nentropy = 0.993\nsamples = 21\nvalue = [17, 14]\nclass = No", fillcolor="#fae9dc"] ;
2 -> 12 ;
13 [label="entropy = 0.831\nsamples = 9\nvalue = [5, 14]\nclass = N1Billboard", fillcolor="#80c0ee"] ;
12 -> 13 ;
14 [label="entropy = 0.0\nsamples = 12\nvalue = [12, 0]\nclass = No", fillcolor="#e58139"] ;
12 -> 14 ;
15 [label="edadEncoded <= 1.5\nentropy = 0.196\nsamples = 113\nvalue = [112.0, 3.5]\nclass = No", fillcolor="#e6853f"] ;
1 -> 15 ;
16 [label="entropy = 0.641\nsamples = 19\nvalue = [18.0, 3.5]\nclass = No", fillcolor="#ea9a5f"] ;
15 -> 16 ;
17 [label="entropy = 0.0\nsamples = 94\nvalue = [94, 0]\nclass = No", fillcolor="#e58139"] ;
15 -> 17 ;
18 [label="artist_typeEncoded <= 2.5\nentropy = 0.952\nsamples = 403\nvalue = [272.0, 458.5]\nclass = N1Billboard", fillcolor="#aed7f4"] ;
0 -> 18 [labeldistance=2.5, labelangle=-45, headlabel="False"] ;
19 [label="edadEncoded <= 2.5\nentropy = 0.871\nsamples = 183\nvalue = [108.0, 262.5]\nclass = N1Billboard", fillcolor="#8ac5f0"] ;
18 -> 19 ;
20 [label="durationEncoded <= 1.5\nentropy = 0.795\nsamples = 120\nvalue = [63.0, 199.5]\nclass = N1Billboard", fillcolor="#78bced"] ;
19 -> 20 ;
21 [label="artist_typeEncoded <= 1.5\nentropy = 0.525\nsamples = 25\nvalue = [8.0, 59.5]\nclass = N1Billboard", fillcolor="#54aae8"] ;
20 -> 21 ;
22 [label="entropy = 0.764\nsamples = 8\nvalue = [4, 14]\nclass = N1Billboard", fillcolor="#72b9ec"] ;
21 -> 22 ;
23 [label="entropy = 0.405\nsamples = 17\nvalue = [4.0, 45.5]\nclass = N1Billboard", fillcolor="#4aa6e7"] ;
21 -> 23 ;
24 [label="genreEncoded <= 3.5\nentropy = 0.858\nsamples = 95\nvalue = [55, 140]\nclass = N1Billboard", fillcolor="#87c4ef"] ;
20 -> 24 ;
25 [label="moodEncoded <= 4.5\nentropy = 0.941\nsamples = 62\nvalue = [41.0, 73.5]\nclass = N1Billboard", fillcolor="#a7d4f4"] ;
24 -> 25 ;
26 [label="artist_typeEncoded <= 1.5\nentropy = 0.997\nsamples = 20\nvalue = [16, 14]\nclass = No", fillcolor="#fcefe6"] ;
25 -> 26 ;
27 [label="entropy = 0.0\nsamples = 5\nvalue = [5, 0]\nclass = No", fillcolor="#e58139"] ;
26 -> 27 ;
28 [label="entropy = 0.99\nsamples = 15\nvalue = [11.0, 14.0]\nclass = N1Billboard", fillcolor="#d5eaf9"] ;
26 -> 28 ;
29 [label="durationEncoded <= 4.5\nentropy = 0.876\nsamples = 42\nvalue = [25.0, 59.5]\nclass = N1Billboard", fillcolor="#8cc6f0"] ;
25 -> 29 ;
30 [label="entropy = 0.784\nsamples = 31\nvalue = [16.0, 52.5]\nclass = N1Billboard", fillcolor="#75bbed"] ;
29 -> 30 ;
31 [label="entropy = 0.989\nsamples = 11\nvalue = [9, 7]\nclass = No", fillcolor="#f9e3d3"] ;
29 -> 31 ;
32 [label="durationEncoded <= 2.5\nentropy = 0.667\nsamples = 33\nvalue = [14.0, 66.5]\nclass = N1Billboard", fillcolor="#63b2ea"] ;
24 -> 32 ;
33 [label="entropy = 0.881\nsamples = 10\nvalue = [6, 14]\nclass = N1Billboard", fillcolor="#8ec7f0"] ;
32 -> 33 ;
34 [label="durationEncoded <= 5.5\nentropy = 0.564\nsamples = 23\nvalue = [8.0, 52.5]\nclass = N1Billboard", fillcolor="#57ace9"] ;
32 -> 34 ;
35 [label="entropy = 0.466\nsamples = 18\nvalue = [5.0, 45.5]\nclass = N1Billboard", fillcolor="#4fa8e8"] ;
34 -> 35 ;
36 [label="entropy = 0.881\nsamples = 5\nvalue = [3, 7]\nclass = N1Billboard", fillcolor="#8ec7f0"] ;
34 -> 36 ;
37 [label="artist_typeEncoded <= 1.5\nentropy = 0.98\nsamples = 63\nvalue = [45.0, 63.0]\nclass = N1Billboard", fillcolor="#c6e3f8"] ;
19 -> 37 ;
38 [label="genreEncoded <= 3.5\nentropy = 0.881\nsamples = 25\nvalue = [15, 35]\nclass = N1Billboard", fillcolor="#8ec7f0"] ;
37 -> 38 ;
39 [label="entropy = 0.966\nsamples = 13\nvalue = [9, 14]\nclass = N1Billboard", fillcolor="#b8dcf6"] ;
38 -> 39 ;
40 [label="entropy = 0.764\nsamples = 12\nvalue = [6, 21]\nclass = N1Billboard", fillcolor="#72b9ec"] ;
38 -> 40 ;
41 [label="edadEncoded <= 3.5\nentropy = 0.999\nsamples = 38\nvalue = [30.0, 28.0]\nclass = No", fillcolor="#fdf7f2"] ;
37 -> 41 ;
42 [label="moodEncoded <= 5.5\nentropy = 0.993\nsamples = 31\nvalue = [23.0, 28.0]\nclass = N1Billboard", fillcolor="#dceefa"] ;
41 -> 42 ;
43 [label="durationEncoded <= 2.5\nentropy = 1.0\nsamples = 23\nvalue = [18.0, 17.5]\nclass = No", fillcolor="#fefcfa"] ;
42 -> 43 ;
44 [label="entropy = 0.887\nsamples = 9\nvalue = [8.0, 3.5]\nclass = No", fillcolor="#f0b890"] ;
43 -> 44 ;
45 [label="entropy = 0.98\nsamples = 14\nvalue = [10, 14]\nclass = N1Billboard", fillcolor="#c6e3f8"] ;
43 -> 45 ;
46 [label="entropy = 0.907\nsamples = 8\nvalue = [5.0, 10.5]\nclass = N1Billboard", fillcolor="#97ccf1"] ;
42 -> 46 ;
47 [label="entropy = 0.0\nsamples = 7\nvalue = [7, 0]\nclass = No", fillcolor="#e58139"] ;
41 -> 47 ;
48 [label="edadEncoded <= 3.5\nentropy = 0.994\nsamples = 220\nvalue = [164.0, 196.0]\nclass = N1Billboard", fillcolor="#dfeffb"] ;
18 -> 48 ;
49 [label="moodEncoded <= 3.5\nentropy = 0.988\nsamples = 208\nvalue = [152, 196]\nclass = N1Billboard", fillcolor="#d3e9f9"] ;
48 -> 49 ;
50 [label="moodEncoded <= 1.5\nentropy = 0.977\nsamples = 72\nvalue = [60, 42]\nclass = No", fillcolor="#f7d9c4"] ;
49 -> 50 ;
51 [label="entropy = 0.0\nsamples = 6\nvalue = [6, 0]\nclass = No", fillcolor="#e58139"] ;
50 -> 51 ;
52 [label="moodEncoded <= 2.5\nentropy = 0.989\nsamples = 66\nvalue = [54, 42]\nclass = No", fillcolor="#f9e3d3"] ;
50 -> 52 ;
53 [label="edadEncoded <= 1.5\nentropy = 0.98\nsamples = 28\nvalue = [20, 28]\nclass = N1Billboard", fillcolor="#c6e3f8"] ;
52 -> 53 ;
54 [label="entropy = 0.997\nsamples = 10\nvalue = [8, 7]\nclass = No", fillcolor="#fcefe6"] ;
53 -> 54 ;
55 [label="entropy = 0.946\nsamples = 18\nvalue = [12, 21]\nclass = N1Billboard", fillcolor="#aad5f4"] ;
53 -> 55 ;
56 [label="durationEncoded <= 4.5\nentropy = 0.871\nsamples = 38\nvalue = [34, 14]\nclass = No", fillcolor="#f0b58b"] ;
52 -> 56 ;
57 [label="entropy = 0.942\nsamples = 29\nvalue = [25.0, 14.0]\nclass = No", fillcolor="#f4c8a8"] ;
56 -> 57 ;
58 [label="entropy = 0.0\nsamples = 9\nvalue = [9, 0]\nclass = No", fillcolor="#e58139"] ;
56 -> 58 ;
59 [label="edadEncoded <= 0.5\nentropy = 0.954\nsamples = 136\nvalue = [92, 154]\nclass = N1Billboard", fillcolor="#afd8f5"] ;
49 -> 59 ;
60 [label="moodEncoded <= 4.5\nentropy = 1.0\nsamples = 22\nvalue = [17.0, 17.5]\nclass = N1Billboard", fillcolor="#f9fcfe"] ;
59 -> 60 ;
61 [label="entropy = 0.0\nsamples = 8\nvalue = [8, 0]\nclass = No", fillcolor="#e58139"] ;
60 -> 61 ;
62 [label="entropy = 0.924\nsamples = 14\nvalue = [9.0, 17.5]\nclass = N1Billboard", fillcolor="#9fcff2"] ;
60 -> 62 ;
63 [label="edadEncoded <= 1.5\nentropy = 0.938\nsamples = 114\nvalue = [75.0, 136.5]\nclass = N1Billboard", fillcolor="#a6d3f3"] ;
59 -> 63 ;
64 [label="moodEncoded <= 4.5\nentropy = 0.82\nsamples = 33\nvalue = [18.0, 52.5]\nclass = N1Billboard", fillcolor="#7dbfee"] ;
63 -> 64 ;
65 [label="entropy = 0.964\nsamples = 13\nvalue = [11, 7]\nclass = No", fillcolor="#f6d1b7"] ;
64 -> 65 ;
66 [label="entropy = 0.567\nsamples = 20\nvalue = [7.0, 45.5]\nclass = N1Billboard", fillcolor="#57ace9"] ;
64 -> 66 ;
67 [label="durationEncoded <= 4.5\nentropy = 0.973\nsamples = 81\nvalue = [57.0, 84.0]\nclass = N1Billboard", fillcolor="#bfe0f7"] ;
63 -> 67 ;
68 [label="entropy = 0.918\nsamples = 55\nvalue = [35, 70]\nclass = N1Billboard", fillcolor="#9ccef2"] ;
67 -> 68 ;
69 [label="entropy = 0.964\nsamples = 26\nvalue = [22, 14]\nclass = No", fillcolor="#f6d1b7"] ;
67 -> 69 ;
70 [label="entropy = 0.0\nsamples = 12\nvalue = [12, 0]\nclass = No", fillcolor="#e58139"] ;
48 -> 70 ;
}